Dense_Bias: 0.14621032774448395
-0.207736
-0.143250
-0.122472
-0.087242
-0.158557
-0.064336
-0.134638
-0.077664
-0.160070
-0.103930
-0.118497
-0.028287
-0.162907
-0.041962
-0.063387
-0.034917
-0.257126
-0.111136
-0.081529
-0.007573
-0.242476
-0.092676
-0.078562
-0.019088
-0.195178
-0.098170
-0.144805
-0.066612
-0.094791
-0.076533
-0.168082
-0.021781
-0.032907
-0.045338
-0.139573
-0.069491
-0.018465
-0.030486
-0.073471
-0.050260
-0.031312
-0.078504
-0.031757
-0.106990
-0.027641
-0.046177
-0.032672
-0.132929
-0.060329
-0.016179
-0.086625
-0.022863
-0.019440
-0.025903
-0.096390
-0.064259
0.021609
-0.008610
-0.062211
-0.098929
-0.049327
-0.017662
-0.054393
-0.110384
-0.020184
-0.056727
-0.134460
-0.092298
-0.045899
-0.091191
-0.136356
-0.068037
-0.132535
-0.093189
-0.109780
-0.046122
-0.098318
-0.105763
-0.105775
-0.088418
-0.162067
-0.145039
-0.126875
-0.100275
-0.181752
-0.066209
-0.086755
-0.128908
-0.119659
-0.126461
-0.151671
-0.034607
-0.216802
-0.144833
-0.190843
-0.049180
-0.264484
-0.148164
-0.124467
-0.062258
-0.283531
-0.120304
-0.155944
-0.051813
-0.231657
-0.106965
-0.137339
0.008812
-0.184459
-0.050731
-0.101965
-0.009218
-0.162820
-0.030561
-0.069693
-0.085132
-0.160684
-0.120676
-0.089964
-0.048644
-0.179642
-0.099318
-0.136843
-0.049122
-0.184286
-0.148538
-0.163251
-0.098093
-0.142687
-0.091543
-0.130517
-0.046624
-0.137925
-0.064598
-0.100389
0.013801
-0.230792
-0.112116
-0.089533
-0.020734
-0.228827
-0.076177
-0.223070
-0.059389
-0.171060
-0.044116
-0.200830
0.004972
0.019776
-0.015120
-0.118220
-0.103151
0.024771
0.019871
-0.001272
0.072981
-0.011337
0.009084
0.026211
0.015588
0.031377
0.024640
-0.025108
0.011619
0.020492
0.030650
-0.030528
-0.109109
-0.008527
-0.009532
-0.045951
-0.104449
0.023450
-0.005364
0.001378
-0.045956
-0.048832
0.030031
0.015747
-0.068005
-0.002174
0.025307
-0.010199
-0.063209
-0.063994
-0.000178
-0.017891
-0.026762
-0.036874
0.027189
-0.017188
-0.076894
-0.056531
-0.051801
-0.038730
-0.058826
-0.019259
-0.037185
-0.050431
-0.112985
-0.015395
-0.054799
-0.109104
-0.138792
-0.079071
-0.073804
-0.081243
-0.099374
-0.107175
-0.120048
-0.127732
-0.049177
-0.135521
-0.068692
-0.151097
-0.070107
-0.173641
-0.088079
-0.093443
-0.099518
-0.101895
-0.071413
-0.150551
0.005598
-0.185469
-0.093501
-0.210392
-0.048224
-0.253014
-0.067773
-0.184050
-0.043741
-0.201583
-0.062283
-0.199770
-0.045841
-0.157868
-0.078795
-0.133257
0.022047
-0.138916
-0.097619
-0.085758
-0.018484
-0.171001
-0.103408
-0.126995
-0.016341
-0.100609
-0.091471
-0.144524
-0.024229
-0.102966
-0.072963
-0.109104
-0.041016
-0.113904
-0.093609
-0.095282
0.033111
-0.145806
-0.144353
-0.126421
-0.058245
-0.045690
-0.028413
-0.101444
-0.051725
0.001585
0.010061
-0.107379
-0.042548
0.009744
-0.016939
-0.000799
0.026964
-0.011817
0.001248
0.006747
0.037332
-0.002422
0.049730
0.007515
-0.053428
-0.012129
-0.022458
-0.016844
-0.057235
-0.057469
0.023142
-0.008886
-0.045392
-0.033251
-0.004127
-0.036508
-0.018577
-0.056391
0.013815
-0.055977
-0.004807
0.028234
0.004456
-0.075385
-0.061930
0.080280
0.060974
0.021815
-0.059951
0.034380
0.000839
0.038017
-0.080346
0.041877
0.063275
-0.001557
0.023466
0.004537
0.028600
0.038296
-0.032494
0.010477
-0.016080
-0.017711
-0.009578
-0.035416
0.027314
-0.045241
-0.085702
-0.048331
0.007102
-0.060768
-0.133287
-0.006632
-0.039408
-0.052565
-0.010993
-0.020253
-0.025121
-0.068105
-0.042570
-0.023776
-0.092685
-0.112725
-0.133799
-0.049791
-0.096983
-0.144189
-0.095122
-0.116161
-0.019981
-0.105622
-0.080561
-0.177851
-0.074832
-0.194567
-0.055620
-0.151677
-0.083919
-0.148246
-0.082439
-0.171350
-0.097403
-0.118271
-0.004179
-0.135888
-0.119515
-0.149154
0.019610
-0.097696
-0.093684
-0.118428
-0.051445
-0.090254
-0.078195
-0.101485
-0.093396
-0.121989
-0.080540
-0.102975
-0.058605
-0.107851
-0.062847
-0.133967
-0.039227
-0.025770
-0.080029
-0.075881
-0.107400
-0.005670
-0.004916
-0.037456
0.017174
-0.032026
0.020261
-0.021020
0.000204
-0.012841
0.038337
-0.039905
-0.074156
0.011734
0.012800
0.009215
0.015083
-0.026149
0.000404
0.031727
0.010913
0.000305
-0.006557
0.021677
-0.014053
-0.015253
-0.007393
-0.061259
-0.165269
-0.032045
-0.028968
0.029584
-0.104277
0.014436
0.001157
0.035798
0.028588
0.020627
0.021911
-0.001744
0.046521
-0.044917
0.047519
0.019400
0.032605
-0.046116
0.029781
0.015337
-0.040527
-0.022943
0.016578
0.002003
0.100886
-0.066291
0.027099
0.000303
0.049283
-0.038849
-0.046015
0.008050
0.005603
-0.035843
-0.011830
-0.039233
-0.079352
-0.075965
-0.037161
-0.060891
-0.031629
-0.070559
-0.052228
-0.070213
-0.039591
-0.088156
-0.051799
-0.060018
-0.098096
-0.041164
0.025079
-0.050003
-0.031175
-0.051140
-0.002788
-0.043149
0.000138
-0.094644
-0.011708
-0.070022
-0.031264
-0.057084
-0.056686
-0.053477
-0.018787
-0.144299
-0.032000
-0.118403
0.027647
-0.119722
-0.065769
-0.125582
0.041444
-0.169320
-0.089218
-0.092536
-0.062430
-0.128082
-0.034813
-0.117285
-0.054930
-0.121247
-0.110742
-0.071046
-0.034837
-0.172799
-0.151821
-0.080110
-0.024949
-0.093444
-0.099980
-0.113466
-0.032010
0.038796
-0.028345
0.014850
0.069237
-0.006944
-0.024260
-0.040241
-0.093171
0.078823
-0.008185
-0.010343
-0.034937
0.043206
0.007768
0.001773
0.035821
-0.026142
0.032155
-0.008158
0.022842
-0.025965
-0.033376
-0.018665
-0.007803
-0.061773
0.017119
-0.047915
-0.101985
-0.057921
-0.026550
-0.002889
0.036162
-0.055600
-0.021724
-0.002006
0.014104
0.046612
0.022438
0.019221
-0.040271
-0.013685
-0.025007
-0.033509
-0.028970
-0.025509
-0.006120
-0.043088
-0.151460
-0.062688
-0.036689
-0.014138
-0.100805
-0.061093
-0.044654
0.022592
-0.064083
-0.014249
-0.036991
-0.038486
-0.124337
-0.071260
-0.030007
0.002203
-0.081499
-0.090025
-0.047212
-0.064849
-0.006496
-0.039507
-0.002451
-0.035889
-0.048663
-0.057734
-0.009246
-0.029914
-0.067390
-0.018363
-0.050906
-0.001662
-0.040750
-0.032044
-0.027611
0.024687
-0.073388
-0.003158
0.035238
0.001365
0.018649
-0.010675
0.025042
-0.030203
0.032030
-0.078755
-0.001160
-0.048854
-0.042688
-0.041305
-0.003570
-0.056708
-0.014451
-0.148038
-0.061954
-0.112596
0.079136
-0.145500
-0.084516
-0.120347
-0.005018
-0.088479
-0.038080
-0.055533
-0.031816
-0.093157
-0.097708
-0.121031
-0.081671
-0.142567
-0.154303
-0.130372
-0.056668
0.042111
-0.020454
-0.113420
-0.044557
-0.011758
0.005816
-0.033521
0.000136
0.065638
0.000233
-0.013339
-0.061119
0.022768
0.102549
0.021919
0.060264
0.027369
0.080246
0.010286
0.067244
-0.011992
0.006818
-0.036989
-0.010288
-0.025144
-0.012633
-0.029699
-0.042465
-0.020281
-0.022981
0.016601
-0.013078
-0.003236
0.015615
0.021727
0.008880
-0.028520
0.004315
-0.023609
-0.048202
0.017928
0.009052
-0.056312
-0.066622
-0.076103
-0.006717
-0.061859
-0.135276
-0.074061
-0.028678
-0.044991
-0.118347
-0.048620
0.007563
0.013398
-0.150791
-0.068702
0.004145
-0.017894
-0.014876
-0.092603
-0.025129
-0.031522
-0.094628
-0.029010
0.003276
-0.038557
-0.043984
-0.079108
-0.016510
-0.019623
-0.125607
-0.052693
-0.023938
0.004925
-0.073231
0.033170
0.011107
-0.021527
-0.022192
-0.022748
-0.011586
0.010555
-0.096367
-0.038802
-0.029614
0.016472
-0.002411
-0.007434
0.051162
0.007055
-0.073830
-0.001290
0.048273
0.005381
-0.000109
-0.062681
-0.008206
-0.019263
0.027510
-0.029729
0.028452
-0.025961
-0.050587
-0.025596
-0.013068
-0.027125
0.045005
-0.079097
-0.056793
-0.068733
-0.027134
-0.081597
-0.055486
-0.069518
0.005217
-0.093732
-0.137375
-0.122345
-0.092453
-0.008510
-0.047829
-0.109926
-0.024010
-0.044526
-0.029867
0.008825
0.053211
0.018306
0.003751
0.036467
-0.044389
0.039063
0.056130
0.026011
0.018291
0.019838
0.061058
0.056687
0.143380
-0.047704
-0.011280
0.004124
0.063288
-0.056120
-0.036459
0.023345
-0.029910
-0.007252
-0.044782
0.011216
0.007635
-0.045795
-0.044122
-0.040542
-0.008203
-0.051083
-0.013560
-0.007941
-0.072348
-0.002118
-0.011315
-0.060348
-0.064466
-0.029938
-0.006914
-0.050224
-0.103333
0.017595
-0.003579
-0.011676
-0.199955
-0.074560
-0.027276
-0.033920
-0.206669
-0.027388
0.009711
-0.008372
-0.202602
-0.002400
-0.034363
0.002277
-0.156774
0.024208
-0.013050
-0.030371
-0.230276
0.006009
0.019024
-0.040555
-0.047867
0.012415
-0.032082
-0.050933
-0.137428
-0.009311
-0.014444
0.018835
-0.058349
-0.040652
-0.049160
-0.030722
-0.095392
-0.055477
0.026459
0.018632
-0.056545
-0.005207
-0.029269
0.017603
-0.100169
-0.045913
-0.012408
-0.000415
-0.086184
0.021349
0.010247
0.062926
0.025739
0.022405
0.019547
0.022455
0.114893
-0.069448
-0.015605
-0.024530
-0.008508
0.039545
-0.013904
0.012128
0.001235
-0.150286
0.008519
-0.070011
0.088283
-0.130370
-0.054414
-0.114345
-0.026655
-0.093466
-0.112389
-0.067711
-0.073312
-0.005537
-0.053755
-0.033730
-0.076272
-0.026360
0.017027
-0.024252
-0.013873
0.070566
0.025449
0.069069
-0.038484
0.088839
0.044536
0.078819
0.102547
0.003965
0.057217
0.076467
0.071114
-0.001585
0.027644
0.031305
-0.038590
0.008035
0.031474
0.019823
-0.011609
-0.041872
0.011158
-0.041787
-0.038061
0.013127
-0.024264
-0.043373
0.032675
0.046161
-0.014059
-0.027471
-0.063087
0.027876
-0.026098
0.016244
-0.067131
0.001465
-0.018544
-0.024574
-0.118011
-0.064815
-0.022020
0.030709
-0.165621
-0.077069
-0.049638
-0.050610
-0.216834
-0.064379
-0.003866
0.010234
-0.151476
-0.038943
-0.021169
-0.028034
-0.102919
-0.065901
-0.007704
-0.040231
-0.158016
-0.011182
0.032476
0.042505
-0.183400
0.034105
-0.008980
0.023425
-0.131176
-0.018686
-0.010544
-0.003795
-0.027277
-0.022128
0.011419
-0.036611
-0.143961
-0.017244
0.002420
0.017272
-0.119133
0.048457
-0.019755
0.036583
-0.138185
-0.071249
0.002013
0.006072
-0.010563
0.042955
-0.022830
-0.023762
-0.016677
0.038691
0.014443
0.013717
0.057783
-0.085296
-0.034885
-0.019526
0.039827
-0.051379
-0.050194
-0.081435
0.016892
-0.083558
0.010000
0.020472
0.030537
-0.085020
-0.069298
-0.113088
0.046432
-0.045450
-0.034767
-0.039708
-0.025690
-0.061211
-0.038831
-0.029368
0.033406
0.041255
0.009081
0.002780
-0.067606
0.100297
0.072948
0.016375
0.053373
0.041232
0.059146
0.043293
0.178475
-0.019350
0.034827
0.006096
-0.004104
0.073540
0.010757
0.017767
0.020516
0.006717
-0.013554
-0.004235
0.045909
0.076159
0.012383
-0.033053
0.001994
0.017067
-0.011977
0.022793
0.045970
-0.001971
0.042848
0.000907
-0.106925
0.036255
-0.023693
-0.018884
-0.081549
-0.042550
0.021121
-0.003431
-0.150902
-0.047816
0.021843
-0.050614
-0.142738
-0.025343
-0.001871
-0.028655
-0.223184
-0.037203
0.015486
-0.065207
-0.195977
-0.086790
0.016252
-0.049533
-0.265940
-0.050861
0.002718
-0.001162
-0.198207
-0.025407
0.018886
-0.020786
-0.079962
0.021146
-0.018880
0.001018
-0.194567
0.043081
0.001845
0.039679
-0.144587
-0.039939
-0.002462
-0.008648
-0.096493
0.014616
-0.032084
-0.002196
-0.094229
0.002279
0.065098
0.009018
-0.072525
-0.016910
0.024845
-0.005154
-0.056241
-0.020318
0.008051
-0.016177
0.012098
0.011914
0.054651
0.043836
-0.019776
0.024642
0.028598
0.050331
0.066034
-0.018926
0.015654
-0.053804
-0.017790
0.029772
-0.071424
-0.055232
0.007311
-0.142304
-0.047564
-0.114636
0.050556
-0.011826
0.013410
-0.030056
-0.059679
0.022088
-0.003741
0.009363
0.014126
0.070535
0.040295
0.055783
0.016489
0.036421
0.071666
0.079045
0.102157
0.015639
0.028411
0.060985
0.031445
0.003174
0.028883
0.010012
0.006202
-0.010905
0.065086
0.027470
-0.013687
0.074302
0.002661
0.021356
-0.028633
0.068052
0.001051
-0.009221
0.104461
0.037988
-0.035444
-0.035724
0.016007
-0.013718
-0.018733
0.017006
-0.132695
-0.055957
-0.009497
0.022339
-0.112310
-0.039131
0.017867
-0.033730
-0.177083
-0.071109
0.020307
0.000046
-0.223141
-0.062712
-0.001365
-0.013227
-0.247657
-0.000878
-0.039373
-0.005740
-0.193575
-0.040411
-0.011502
-0.025952
-0.177143
-0.079330
0.019212
0.013314
-0.179837
-0.017990
0.000245
-0.005044
-0.230708
-0.020270
-0.035230
-0.013708
-0.264515
-0.030909
0.045359
-0.015684
-0.195056
0.007107
0.002992
0.021343
-0.166060
-0.002568
0.033550
-0.008978
-0.088626
0.057769
0.000109
0.022522
-0.079084
0.003937
0.077872
-0.001276
-0.081124
-0.050998
0.009923
0.002162
0.005346
-0.020464
0.041522
-0.011630
0.014228
0.011637
0.038557
0.000741
0.033779
-0.018053
-0.017163
0.023909
0.014690
-0.024870
-0.016777
-0.057432
-0.017139
-0.100010
-0.019565
-0.074618
0.046510
-0.023171
-0.016579
-0.016747
-0.065883
0.015696
-0.007802
-0.014084
-0.049994
0.022151
0.033611
0.034562
0.089130
-0.012015
-0.018332
0.034742
0.134741
-0.034003
0.023369
0.016278
-0.025532
0.011613
0.045983
-0.031499
-0.027017
0.050852
0.073943
0.033920
0.039797
0.073823
0.066212
-0.009896
0.018454
-0.008414
0.027487
-0.001671
0.029735
0.047134
-0.032176
0.005239
-0.033833
-0.071217
0.024085
-0.022368
-0.076789
-0.058986
-0.029440
-0.059588
-0.146335
-0.002654
0.003972
-0.056161
-0.261842
-0.018061
-0.003594
-0.052888
-0.185948
-0.025812
-0.013841
-0.036906
-0.241321
-0.073990
-0.033942
0.025296
-0.179745
-0.067999
-0.014289
-0.047729
-0.260233
-0.056666
-0.044060
-0.049744
-0.205177
-0.067221
-0.029863
-0.059522
-0.234878
-0.017968
-0.022201
-0.024922
-0.242176
-0.006334
-0.037547
-0.003086
-0.229568
-0.066243
-0.009083
-0.015237
-0.182639
0.011918
0.017997
-0.015329
-0.181554
-0.009272
0.049824
0.034700
-0.129939
0.024963
0.086239
0.009432
-0.059629
-0.002278
0.020323
0.022844
-0.052918
-0.055902
0.006782
-0.013224
0.049256
0.080258
0.017787
-0.008269
0.004180
-0.000604
-0.003952
-0.025221
0.084654
-0.030509
-0.011920
-0.026088
0.022402
-0.006649
-0.025885
-0.003354
0.012540
-0.033303
-0.067728
0.001329
0.049523
0.052956
0.003281
-0.005604
0.032242
0.004562
0.026463
0.042635
0.036937
-0.053235
-0.017579
-0.004091
0.085612
-0.051395
0.046046
-0.039685
-0.052691
0.032757
0.075189
0.007296
-0.039039
0.004358
0.029773
0.061219
0.045583
0.017974
0.040250
0.050043
0.032540
0.020379
-0.001881
-0.008283
-0.017954
-0.036848
-0.024592
0.029158
-0.106146
-0.054510
-0.050756
0.009948
-0.183655
-0.008753
-0.024995
-0.003040
-0.308349
-0.035203
0.015850
-0.012140
-0.223926
-0.008347
-0.036381
0.024493
-0.193287
-0.087781
-0.003305
-0.061611
-0.194412
-0.062471
-0.036428
-0.054568
-0.263701
-0.076541
-0.001785
-0.058429
-0.260031
-0.004692
0.030419
-0.033180
-0.209896
-0.028938
0.046485
0.050467
-0.217859
-0.025823
-0.036954
-0.043315
-0.199003
-0.042304
-0.023909
-0.008037
-0.266649
-0.071680
0.013555
0.010832
-0.218787
-0.040573
-0.002160
0.025143
-0.155353
0.028972
0.012959
-0.030185
-0.066592
-0.020228
0.051110
0.067684
-0.061502
0.018071
0.056473
0.050740
-0.031435
0.014310
-0.008236
-0.014594
0.003068
-0.037797
-0.018178
0.010392
0.016012
0.008308
0.014760
0.038987
0.085560
-0.025532
-0.041176
0.022250
0.038776
0.020482
-0.035620
-0.011470
0.000491
-0.017980
-0.013631
0.006402
0.054891
0.054010
0.021552
0.007503
-0.002286
0.027752
0.012524
0.057480
0.011216
-0.012824
0.036886
-0.025256
-0.022201
-0.009124
-0.002516
0.032767
-0.097112
0.017095
0.077082
0.042419
0.047042
0.061774
0.074664
0.009037
-0.028626
-0.009221
0.059383
0.000931
0.001744
-0.010928
-0.017297
-0.015238
-0.049716
-0.033929
0.006140
-0.037635
-0.092335
-0.044592
0.027279
-0.035329
-0.131129
-0.042321
-0.034862
-0.056283
-0.202029
-0.007355
-0.002277
-0.027669
-0.106281
-0.023406
0.018771
0.030087
-0.210483
-0.028928
-0.018622
-0.059054
-0.247170
0.005823
0.038261
0.035780
-0.204365
-0.048789
-0.030352
0.019285
-0.284919
-0.057720
-0.022584
0.006022
-0.164761
0.002129
-0.012917
-0.004574
-0.128156
-0.028102
0.007426
-0.001421
-0.143471
-0.054270
0.001184
-0.020500
-0.237258
0.009336
-0.012608
-0.033803
-0.186468
-0.035765
-0.028459
-0.044107
-0.163623
0.011721
0.047337
0.012361
-0.140723
-0.007537
0.066548
0.054994
-0.060674
0.018413
0.053060
0.055874
-0.002713
0.011908
0.003107
0.019265
0.052929
-0.071074
0.044073
-0.027499
-0.015441
0.047430
-0.019308
0.022857
0.076085
-0.014380
-0.024184
0.003981
0.029312
-0.048245
-0.032421
-0.084540
0.067642
0.024147
-0.043362
0.010166
-0.117086
0.014934
0.002390
0.001910
-0.000363
0.051299
-0.016140
-0.024381
-0.036048
-0.002578
0.020926
-0.047809
-0.026929
-0.011210
0.034952
-0.019843
-0.081702
0.009134
0.036154
0.023141
0.021674
-0.006895
0.041366
0.070615
0.020596
0.025069
0.054400
0.020334
-0.013694
-0.048061
-0.003712
-0.004280
-0.063419
-0.031662
0.009849
0.016192
-0.124253
-0.017423
-0.041353
0.013188
-0.214598
-0.003283
-0.022117
0.017316
-0.196926
-0.010624
0.011318
0.029504
-0.208943
0.022186
0.020071
-0.008715
-0.203329
-0.028776
0.008058
0.025748
-0.197371
-0.029498
-0.024080
0.028434
-0.211131
-0.039362
-0.030966
0.025864
-0.207313
0.043352
0.024611
-0.018121
-0.201662
-0.011358
-0.002883
0.027692
-0.079888
-0.037553
0.003730
-0.024981
-0.154952
-0.057993
-0.011773
-0.053986
-0.191890
-0.050387
0.001476
-0.021978
-0.237108
-0.062138
-0.046538
0.012121
-0.234861
-0.028073
0.041193
-0.036915
-0.095643
0.030225
0.011233
0.049315
-0.143155
0.059718
0.042609
0.045949
0.019887
0.021578
0.037475
0.049602
0.035711
-0.028701
-0.000608
-0.011460
-0.027291
0.027967
-0.010796
-0.019200
0.012669
-0.002205
0.004248
0.026783
0.049487
-0.058383
-0.052048
-0.042484
0.001815
0.023167
0.025853
0.009282
-0.086697
-0.010975
0.031022
0.005605
0.042229
-0.007262
0.027547
0.036579
-0.008138
-0.010824
0.000951
-0.010100
0.031837
-0.054565
0.015784
0.035008
-0.086147
0.044518
0.050643
0.064100
0.012030
-0.002234
0.085054
0.046295
0.008822
0.030876
0.063830
0.057926
-0.017284
-0.030675
-0.020307
-0.016881
-0.117460
-0.080244
0.007477
-0.019724
-0.160413
-0.086240
0.019995
-0.046472
-0.219358
0.017965
-0.014553
0.003670
-0.205798
0.056311
0.014520
0.001916
-0.156306
0.038241
0.057339
0.019827
-0.097004
-0.007416
0.016261
0.038828
-0.171157
-0.031032
0.052968
-0.015618
-0.277667
-0.020770
-0.007671
0.045646
-0.261295
-0.007574
0.059629
-0.004264
-0.142443
-0.000590
-0.007090
-0.009747
0.006679
0.027528
-0.037267
-0.003731
-0.133352
-0.027555
-0.039094
-0.025248
-0.173010
-0.077528
0.011430
0.000437
-0.238645
-0.031745
-0.012855
0.001664
-0.241226
0.022567
-0.014974
0.023250
-0.067188
0.069489
0.070287
0.014201
-0.021930
0.022913
0.052426
0.039969
0.104901
-0.042528
-0.026667
0.036931
0.007542
-0.023306
-0.058702
0.016011
-0.014647
-0.043825
-0.019419
-0.026819
-0.019583
-0.062152
0.007529
-0.002027
0.036723
-0.100247
0.001822
-0.019739
0.035953
-0.029254
-0.029675
0.024531
-0.087065
-0.004634
-0.019298
-0.025874
0.028823
-0.036419
-0.032902
-0.072508
-0.034178
0.015319
-0.050891
-0.035637
-0.052693
0.023082
0.017504
-0.005610
0.008995
0.066284
0.001893
-0.008796
0.039142
0.050532
0.071123
0.028617
0.020511
0.052073
0.047395
0.003309
0.068605
0.002823
-0.034050
0.003425
-0.032689
-0.066452
-0.038833
-0.002143
-0.168824
-0.032848
-0.048240
-0.029815
-0.224799
0.042224
0.020732
-0.018688
-0.156363
0.063310
-0.003919
0.064995
-0.119623
-0.012239
-0.013591
0.054361
-0.089316
-0.003632
0.052607
0.030518
-0.165975
-0.038262
0.007040
0.040495
-0.199936
-0.032921
-0.021154
0.045241
-0.208766
0.034519
-0.005369
0.055093
-0.088370
0.032371
0.036907
0.014026
-0.142347
-0.015644
-0.023707
0.037460
-0.050333
-0.015592
-0.031232
-0.054484
-0.182737
-0.005381
-0.056004
0.006694
-0.216554
-0.004490
0.022906
-0.039436
-0.127312
0.023157
0.043049
0.022406
-0.024989
0.015705
0.039091
0.016327
0.017474
0.060485
0.033863
0.048836
0.054498
-0.007361
-0.007603
-0.034012
0.066925
0.011574
-0.013392
-0.014473
-0.049613
0.004106
-0.031969
0.011335
0.049600
-0.038636
0.000158
-0.047498
0.024660
-0.144731
-0.057015
-0.022192
-0.012006
-0.023559
-0.036783
0.023706
-0.138621
0.009647
0.010464
-0.031426
0.083081
-0.056797
-0.057499
-0.040166
-0.056994
-0.053693
-0.012598
0.014714
0.023994
0.022537
0.025363
0.037442
-0.072858
0.036175
0.018078
0.033316
0.068981
0.077094
0.055770
0.033518
0.036660
0.021423
0.014229
0.069495
0.135214
-0.081578
-0.035649
0.006750
0.016051
-0.111420
-0.054225
-0.015667
-0.188820
-0.075824
-0.051846
-0.006859
-0.128111
-0.012916
0.042490
0.034310
-0.101975
0.056290
-0.014212
0.047022
-0.142792
-0.015729
0.055127
0.048780
-0.137599
-0.052874
0.038108
-0.005622
-0.128959
-0.047474
0.034299
-0.024680
-0.210389
-0.004858
-0.001248
0.020368
-0.129320
-0.007956
-0.025494
0.013406
-0.021789
0.062561
0.021413
0.008751
0.045546
-0.036130
0.008151
0.009978
-0.012514
-0.026662
-0.001813
-0.023283
-0.124466
-0.005653
-0.000183
-0.030057
-0.180057
0.018100
0.040307
0.017916
-0.059788
0.048711
0.036807
-0.002120
0.075052
0.026565
0.020208
0.050437
0.011199
0.081209
0.054952
-0.003471
0.089209
-0.036166
-0.011350
-0.032263
0.023226
0.026652
-0.012228
-0.032057
-0.023153
-0.045217
0.023324
-0.028960
0.008083
-0.076261
-0.010682
-0.056021
-0.058103
-0.077674
-0.063152
-0.023535
0.013922
-0.044884
-0.006021
-0.032266
-0.141269
0.016440
-0.070637
0.001928
0.078386
-0.061612
-0.010535
-0.051477
-0.056521
-0.021878
-0.014792
-0.037868
-0.071536
0.019885
0.048578
0.015911
-0.066506
0.039865
-0.005181
0.003273
0.063924
0.058685
0.066895
0.026555
0.055885
0.035949
0.034599
0.026642
0.115329
-0.000988
0.005047
0.014550
-0.007786
-0.034779
-0.052177
0.004216
-0.109848
-0.099992
-0.056419
-0.068345
-0.124295
-0.021094
-0.025057
-0.023816
-0.140185
0.012457
0.036582
-0.022175
-0.097716
-0.038798
0.026958
-0.012636
-0.128544
-0.071913
-0.000021
0.007230
-0.187954
0.015869
-0.023749
0.008893
-0.188299
-0.031163
0.007345
-0.033180
-0.077555
0.075642
0.013932
-0.004401
-0.033770
0.019216
0.004487
-0.015949
0.020938
0.019262
-0.025884
0.030094
0.032259
-0.004299
-0.033288
-0.036602
-0.091395
-0.016771
-0.022453
-0.020707
-0.013447
0.024156
0.013137
-0.036289
-0.052376
-0.000670
0.053755
0.021224
0.065635
0.089950
0.052063
0.035839
-0.024340
0.096421
0.044452
0.012420
0.105991
0.006036
0.030146
-0.042413
0.016518
-0.036268
-0.066507
-0.012913
-0.045301
-0.123975
-0.028759
-0.019956
-0.019470
-0.008722
-0.032506
-0.021126
-0.031293
-0.084345
-0.083883
0.000098
-0.028478
-0.083845
-0.030551
-0.021674
-0.155033
-0.031426
-0.029958
-0.062342
-0.042061
-0.066769
-0.087980
-0.028581
0.033459
-0.096123
-0.060140
-0.054644
-0.022261
-0.041328
-0.006713
-0.024926
-0.051469
0.046855
0.042207
-0.009182
-0.019047
0.020020
0.058614
0.044591
-0.007246
-0.011229
-0.017582
-0.018979
0.120375
0.002975
-0.015966
-0.031198
-0.005484
-0.051835
-0.030406
-0.006477
-0.012381
-0.024846
-0.010548
0.006507
-0.158656
0.012920
-0.019316
-0.061462
-0.213394
0.000545
-0.023737
0.013437
-0.155119
-0.044089
0.030837
0.011549
-0.034429
-0.050847
-0.024987
-0.032481
-0.175470
-0.001715
-0.021301
0.018186
-0.029501
-0.030045
-0.008820
0.018728
-0.103278
0.020744
0.033294
-0.001574
-0.032458
0.063771
0.009758
0.035310
0.018836
-0.029015
-0.012698
-0.004965
0.023102
0.072176
0.011877
-0.039480
-0.066275
-0.004744
0.016856
-0.048219
0.055122
0.009344
0.023653
-0.025402
0.019555
0.042966
0.061447
0.031751
0.014548
0.072612
0.060695
0.020943
-0.001529
0.044622
0.031436
0.077071
0.031167
-0.111048
0.020329
-0.032389
-0.015556
-0.029380
-0.060915
-0.054494
-0.056257
-0.132938
-0.066821
-0.071324
-0.082719
-0.005550
-0.054062
-0.074585
-0.002828
-0.138823
-0.098756
-0.061313
-0.070646
-0.106168
-0.102156
-0.118798
-0.130804
-0.073836
-0.080021
-0.081465
-0.090016
-0.025759
-0.065661
-0.057235
-0.016612
-0.045570
0.012541
-0.058798
-0.061291
-0.019545
-0.041050
-0.015090
-0.068713
0.018520
0.005476
-0.002665
-0.068950
0.073890
0.070722
0.035507
-0.013914
0.047613
0.033543
0.012516
0.089862
0.039430
0.010236
-0.033534
0.006863
-0.028151
0.006061
-0.058099
-0.055581
-0.007573
-0.005573
-0.041218
-0.078148
-0.057986
0.003723
0.001869
-0.243767
0.002612
0.054750
0.031171
-0.121361
0.034759
-0.020084
0.045641
-0.070630
-0.008899
-0.021660
-0.049396
-0.112501
0.045313
-0.014804
0.022683
-0.070961
0.020625
0.014843
0.001320
-0.017571
0.061072
0.041181
0.032637
-0.011581
0.071347
0.029343
0.014465
0.077837
-0.004912
-0.024617
0.028757
-0.015676
0.028535
0.039016
0.037605
0.003049
0.018377
0.011238
0.001266
0.075702
0.083663
-0.021254
-0.040175
0.055097
0.078050
0.016430
0.055297
0.080159
0.067419
0.084871
0.077932
0.073377
0.004158
0.028710
0.093226
0.069128
0.008785
0.014273
-0.019393
-0.062456
-0.059082
-0.009102
-0.051867
0.003854
-0.088574
-0.097462
-0.066721
-0.153425
-0.065814
-0.086019
-0.085710
-0.020020
-0.075829
-0.094835
-0.118861
-0.080305
-0.109009
-0.096032
-0.097458
-0.161075
-0.059994
-0.085348
-0.073738
-0.135909
-0.009151
-0.090545
-0.026160
-0.059014
-0.015119
-0.047966
-0.024769
0.040707
-0.093197
-0.046389
-0.021937
-0.073765
-0.093309
-0.018114
-0.007697
-0.234756
0.013267
0.022499
0.052144
0.012319
0.086497
0.045612
0.040684
0.042679
-0.010625
-0.015068
-0.021324
0.097625
0.028907
0.024276
0.016349
0.013582
0.049869
-0.050454
-0.000103
-0.092228
0.000241
-0.000452
-0.029428
-0.110549
0.045641
-0.019649
0.027093
-0.164964
0.010073
0.062789
0.023302
-0.043519
0.080713
0.054514
0.032986
-0.058181
0.036430
0.086712
0.017217
0.061848
0.043207
0.013722
0.051592
0.105661
0.074679
0.027174
0.027695
0.037905
0.097105
0.013695
0.057749
0.059901
0.057523
-0.015129
-0.006962
-0.035428
0.030588
-0.013497
0.019513
0.028928
0.081435
0.051454
0.030182
0.070872
0.102988
0.017476
0.042024
0.104958
0.068630
0.066355
0.004625
0.153167
0.125942
0.076946
0.039697
0.001954
-0.001953
0.069706
0.027433
0.049295
0.003037
-0.006750
0.023433
-0.098906
-0.093772
-0.007185
-0.034566
-0.010150
-0.044679
-0.096147
-0.067905
-0.125305
-0.082252
-0.026928
-0.030870
-0.059316
-0.028199
-0.052956
-0.065530
-0.077065
-0.145707
-0.089039
-0.095411
-0.033382
-0.156126
-0.113701
-0.084655
-0.159604
0.010239
-0.015291
-0.077463
-0.045363
-0.073900
-0.064439
-0.081145
0.037143
-0.065403
-0.052117
-0.099961
-0.070039
-0.043444
-0.012201
-0.014713
-0.215969
0.017711
0.062630
0.033409
-0.076894
0.038079
0.004097
0.056775
0.076046
0.074374
0.046524
0.055551
0.074199
0.039635
-0.011396
-0.014642
-0.030295
0.002051
-0.004289
-0.003990
0.089301
0.037662
-0.011944
0.036942
0.022289
0.014469
-0.018879
-0.012354
-0.017138
0.082189
0.032110
0.026686
0.006544
0.067667
0.005682
0.058809
0.081561
0.021816
0.070072
0.037414
0.042446
0.002491
0.072463
0.040350
0.031666
0.061374
0.031980
0.042247
0.106828
0.058321
0.046996
0.023127
0.124696
0.071144
0.004591
0.010781
0.027779
0.092319
0.044671
0.063966
0.097280
0.051100
0.014279
0.000082
0.127345
0.073922
0.069799
0.034928
0.149811
0.021192
0.028045
0.023400
0.005002
0.071620
0.068517
0.060753
-0.039532
-0.063401
0.050873
0.004729
-0.035977
0.025219
-0.038137
-0.018673
-0.090856
-0.123351
-0.010363
-0.014703
-0.122602
-0.036621
-0.011750
-0.011949
-0.057147
-0.101751
-0.039010
-0.031704
-0.092939
-0.053946
-0.023461
-0.066063
-0.013984
-0.178196
-0.093590
-0.080523
-0.104553
-0.110024
-0.090509
-0.110692
-0.163956
-0.040933
-0.071898
-0.037161
-0.111284
0.003999
0.008543
-0.005185
-0.036652
-0.055364
-0.008032
-0.064485
-0.156199
-0.089870
-0.021152
0.007962
-0.182068
-0.024454
0.032265
0.015847
-0.125526
0.013443
0.065920
-0.000729
-0.064380
0.064069
0.010055
-0.000268
0.132640
0.050150
0.059733
0.067090
0.075143
0.063090
0.029540
0.018159
0.028596
0.082559
0.021265
0.000650
0.079274
0.028503
0.041331
0.019609
0.092352
0.062554
-0.000479
0.012154
0.024260
0.057975
0.044274
0.024266
0.113687
-0.021774
0.010150
0.057182
0.048352
0.054047
0.046262
0.031774
0.000392
0.131408
0.026815
0.077629
0.092796
0.056167
0.023827
0.057586
0.100101
0.091738
0.021345
0.013994
0.140300
0.071184
0.058670
0.017016
0.174900
0.052714
0.038340
0.008338
0.091127
0.054554
0.023459
0.006816
0.084553
0.091727
0.056877
0.059228
-0.100293
-0.004413
0.064538
0.028263
0.021132
-0.060076
-0.020993
0.033909
-0.140081
-0.038984
-0.021129
-0.059264
-0.045982
-0.075383
-0.039140
-0.045507
-0.045554
-0.064196
-0.063056
-0.031858
-0.033726
-0.065574
-0.058224
-0.037128
-0.135230
0.007173
-0.077650
-0.058779
0.005984
-0.165473
-0.126596
-0.154291
-0.092074
-0.069666
-0.044829
-0.089110
-0.119794
-0.037372
-0.005210
-0.011683
-0.071789
0.032583
-0.004507
0.006238
-0.043993
-0.005803
0.016872
0.023581
-0.003872
-0.024926
-0.004772
0.002072
-0.075521
-0.077571
0.033064
-0.015589
-0.088703
0.000999
0.015343
0.013900
-0.158765
0.048879
0.034765
0.016301
0.027026
0.023856
-0.001694
0.032221
0.107932
0.009523
0.011933
0.008658
0.018519
0.036153
-0.003786
0.017969
0.015804
0.046569
0.052478
0.054342
0.074916
0.097232
0.044475
0.079638
0.081956
0.075383
0.003568
0.018932
0.090562
-0.004378
0.025152
-0.005791
-0.048766
0.048617
0.023811
0.046278
-0.050296
0.082510
0.033765
0.024997
0.104739
0.074508
0.088834
0.061752
0.041107
0.025242
0.010363
0.030810
0.128860
0.030469
0.059290
-0.006627
0.036341
0.024661
0.057714
0.070982
0.070504
0.016566
0.022122
0.052565
-0.011059
0.066324
0.064846
0.019845
-0.079031
-0.073301
0.011875
0.021805
-0.151723
0.011013
0.012915
0.038246
-0.082168
0.004871
0.021199
-0.015879
-0.046973
-0.070100
0.025935
-0.036904
-0.046061
-0.056788
0.017928
0.012041
-0.088187
-0.022851
0.026340
0.000647
-0.076592
0.041584
0.022605
-0.016647
0.044251
-0.155845
-0.109626
-0.082167
-0.021714
-0.098197
-0.073837
-0.043932
-0.072931
0.038954
-0.009782
-0.040758
-0.006998
-0.014528
0.034774
-0.020392
0.002130
-0.041431
0.046844
-0.031729
0.007626
0.027274
0.002842
-0.024799
-0.018314
-0.030597
0.036371
0.015578
-0.069765
-0.065998
0.049485
-0.039033
-0.182868
0.041171
0.056451
0.028745
-0.102356
0.058090
0.022424
0.014201
-0.057940
-0.003271
0.041532
0.032181
0.095882
-0.024205
0.029252
-0.002539
0.001037
0.055104
0.031295
0.016693
0.044950
0.102101
0.014324
0.074281
0.073978
-0.012721
-0.018677
0.035830
0.031996
-0.037868
0.010256
-0.003650
0.018227
0.051259
0.038485
-0.022679
-0.072597
0.041751
0.026823
0.078946
0.022772
0.042203
0.033655
0.013753
0.005617
-0.015307
-0.015733
0.014783
0.108217
0.037704
0.030005
0.038377
0.002714
0.053645
0.014697
0.040934
-0.005954
0.003486
0.020358
0.036019
-0.092342
-0.071863
-0.003945
-0.021280
-0.136091
-0.100867
0.035950
-0.029237
-0.115529
0.006929
0.022906
0.021979
-0.074532
-0.020607
0.044213
0.019076
-0.071629
-0.049665
-0.012421
0.017217
-0.002919
-0.079461
0.001440
0.001971
-0.074786
-0.037360
0.029086
-0.015386
-0.003704
0.041808
0.017735
0.013332
0.003780
-0.147606
-0.093333
-0.096187
-0.095867
-0.089340
-0.074602
-0.049760
-0.108432
-0.002699
-0.014830
-0.002224
0.011357
0.033755
0.020378
-0.005955
0.001284
-0.028117
0.047561
0.048850
-0.019823
-0.008987
0.041924
-0.003605
-0.009324
0.034606
0.008450
-0.017416
-0.059303
-0.068378
-0.005088
-0.012333
-0.141369
-0.098814
0.002230
-0.046332
-0.114321
-0.054728
0.033240
0.033340
-0.131959
-0.003007
0.015021
0.024002
-0.037189
-0.015122
0.022777
-0.007037
-0.012644
0.014029
-0.043072
0.029780
0.020097
0.020560
-0.020362
0.004506
0.026542
0.037340
0.037752
-0.007642
-0.094997
-0.007062
-0.029839
0.030973
-0.079061
-0.001705
0.032855
0.017442
-0.080361
-0.009191
-0.001272
0.000155
-0.059621
-0.019390
-0.043816
0.041344
0.028915
-0.042249
-0.046089
0.004472
-0.073944
0.033164
-0.025887
-0.015916
-0.008232
0.014809
0.012294
-0.035079
-0.095558
-0.067372
0.015650
-0.076056
-0.124883
-0.094597
-0.003928
0.011095
-0.144982
-0.050368
0.029044
-0.014513
-0.108013
-0.061909
0.035905
-0.003061
-0.024863
-0.023554
0.039325
0.052046
-0.066668
0.004340
0.021663
-0.004229
-0.012541
-0.035801
-0.063890
-0.029458
-0.098401
-0.117763
-0.045787
-0.041062
-0.026958
0.001519
-0.018008
-0.032963
-0.003338
-0.114440
-0.088958
-0.109742
-0.046576
-0.142548
-0.083926
-0.102487
-0.024791
0.002536
0.019410
-0.008232
-0.061103
0.091123
0.013650
0.003442
-0.044612
0.053145
0.031410
0.017957
0.072255
0.010134
0.034671
0.030975
0.001864
0.026696
0.033584
0.008547
-0.073985
0.000309
0.030183
-0.009072
0.000961
-0.095299
-0.003282
-0.016889
-0.150960
-0.089391
-0.013404
-0.024999
-0.131830
-0.042000
-0.036956
-0.042457
-0.195121
-0.047199
0.003239
-0.035613
-0.164413
-0.020330
-0.052313
-0.004546
-0.046924
-0.010762
0.002495
-0.039040
-0.120477
0.024579
-0.020011
-0.006728
-0.120076
-0.038159
-0.013693
-0.026293
-0.183517
-0.010810
-0.030211
-0.035396
-0.121753
-0.058211
-0.044818
-0.022825
-0.131327
-0.091079
-0.023504
-0.060011
-0.039530
-0.044017
-0.034465
-0.056704
-0.060347
-0.075683
0.018571
-0.010621
-0.170634
-0.032906
0.018857
-0.006645
-0.166392
-0.056970
-0.019482
-0.040491
-0.201080
-0.050387
0.018370
0.009384
-0.164081
-0.054430
0.034170
0.021385
-0.052625
-0.024931
0.022243
0.021259
-0.010571
-0.002115
0.023474
-0.004032
-0.087507
-0.019805
0.039602
0.012394
-0.018892
0.051057
0.008613
-0.037544
-0.040501
-0.058843
-0.094075
-0.069552
-0.028038
-0.032567
-0.061209
-0.035859
0.002181
-0.133921
-0.062290
-0.115330
-0.034391
-0.125096
-0.062024
-0.076051
-0.094548
0.076201
0.031744
0.019881
-0.156798
0.149092
0.125534
0.039515
-0.011454
0.093229
0.080861
0.068610
0.079324
0.102208
0.097704
0.076403
0.020289
0.116482
0.052798
0.020330
-0.066348
0.038224
0.067466
0.062414
0.030827
-0.043887
-0.005087
-0.023173
-0.129668
-0.026818
-0.009906
-0.065796
-0.130301
-0.014668
0.001442
-0.073383
-0.171006
-0.082742
-0.001476
-0.088764
-0.135285
-0.104253
-0.038434
-0.053155
-0.118223
-0.100171
-0.023295
-0.031172
-0.114020
-0.027602
0.015100
-0.019556
-0.122614
-0.066204
-0.036984
-0.058360
-0.167460
-0.072681
0.020301
-0.045888
-0.183138
-0.136918
-0.025589
-0.020140
-0.114529
-0.047689
0.006479
-0.081446
-0.090518
-0.044026
-0.053546
-0.098846
-0.134448
-0.087729
-0.033006
-0.103521
-0.182411
-0.040343
0.002597
-0.079805
-0.127344
-0.104400
-0.001617
0.013640
-0.175155
-0.058770
0.050871
0.005648
-0.146837
0.001299
0.006155
-0.011001
-0.003034
0.036248
0.052381
-0.032905
-0.015733
0.036861
0.041365
0.044451
-0.039675
0.078624
0.091185
0.064336
0.069415
-0.024226
0.009703
0.056085
0.040027
-0.015995
-0.051925
-0.058318
-0.042323
-0.081557
-0.019155
-0.070310
0.048491
-0.155123
-0.095028
-0.107340
-0.051328
-0.030149
-0.070900
-0.065275
-0.054187
0.071116
0.094134
0.044585
-0.083001
0.174043
0.102444
0.136318
-0.021547
0.131658
0.085614
0.091025
0.134983
0.137441
0.085163
0.117740
-0.043588
0.079847
0.130558
0.123333
-0.056510
0.118962
0.071934
0.045645
-0.060524
0.037734
0.073441
-0.001422
-0.087412
-0.017949
0.012370
-0.057643
-0.112201
0.010756
-0.001599
0.014320
-0.159415
-0.031448
-0.043146
-0.025347
-0.191204
-0.087138
-0.002645
-0.058063
-0.174523
-0.073955
0.003455
-0.106329
-0.173848
-0.015136
0.020655
-0.058962
-0.183714
-0.088802
-0.001212
-0.015100
-0.146506
-0.034370
-0.024541
-0.035692
-0.113234
-0.097059
-0.036164
-0.071315
-0.199860
-0.031952
-0.025685
-0.091553
-0.227261
-0.024698
0.006584
-0.106208
-0.173771
-0.054978
0.030155
-0.000522
-0.125613
-0.078971
0.033397
0.012280
-0.141187
-0.023110
-0.001776
0.039297
-0.134553
-0.001864
0.081344
-0.014504
-0.060407
0.049428
0.069032
-0.003870
-0.000647
0.006353
0.097159
0.077133
-0.042337
0.088887
0.057691
0.076316
-0.018680
0.076561
0.133067
0.053060
0.101127
-0.070966
0.054420
0.047688
0.056895
-0.082886
-0.067668
-0.083073
0.012069
-0.211677
-0.092121
-0.143206
-0.046832
-0.059623
-0.093481
-0.138360
-0.061430
-0.011596
0.008858
-0.063871
-0.075643
0.133141
0.086191
0.044686
-0.017001
0.169752
0.196390
0.130979
0.050794
0.085776
0.159786
0.137176
0.080580
0.122634
0.135103
0.087266
-0.030836
0.124308
0.111267
0.126090
-0.003071
0.193214
0.159853
0.123318
-0.032292
0.128678
0.086944
0.049783
-0.044778
0.022646
0.021357
0.031970
-0.128210
0.000110
0.059835
-0.036575
-0.177559
-0.031612
0.034553
0.008251
-0.095630
-0.045365
0.011695
-0.078186
-0.141735
-0.044292
-0.037218
-0.084054
-0.213662
-0.061031
0.015954
0.010253
-0.143107
-0.051882
-0.024853
-0.027758
-0.204954
-0.077370
0.005690
-0.042183
-0.219636
-0.030414
-0.000309
-0.014400
-0.194688
-0.062406
-0.002358
-0.023564
-0.165440
-0.041983
0.011505
0.020310
-0.142822
-0.009926
0.015447
0.024766
-0.106320
0.038811
0.063914
0.004416
-0.122663
0.002736
0.025042
0.011529
-0.018612
0.051240
0.091921
0.030361
0.076150
0.053325
0.052301
0.026545
-0.013477
0.118049
0.087235
0.047783
-0.059822
0.139945
0.120144
0.070331
0.037634
0.018808
0.055907
0.081446
0.053673
-0.011463
0.014157
0.032348
-0.057471
-0.064115
-0.082496
-0.083506
0.016242
-0.253798
-0.128904
-0.162639
-0.066887
-0.145606
-0.133169
-0.126979
-0.132224
-0.033774
-0.037260
-0.053011
-0.067758
0.083764
0.094345
0.025510
0.024197
0.092357
0.092884
0.132427
0.136179
0.108297
0.139217
0.088061
0.074213
0.090823
0.136878
0.093813
-0.024724
0.147424
0.120946
0.132144
0.049486
0.126405
0.174645
0.161330
0.086006
0.163805
0.167501
0.160177
-0.024872
0.172225
0.118598
0.123600
-0.063356
0.134844
0.098863
0.056030
-0.138325
0.068837
0.042204
0.052087
-0.154967
0.048656
0.045349
0.026329
-0.088218
-0.050659
0.047870
-0.041350
-0.181434
-0.063394
-0.024704
-0.076118
-0.160923
-0.054129
0.012788
-0.031525
-0.177371
-0.032055
0.046156
-0.079174
-0.144670
0.006199
0.020987
-0.070263
-0.123711
-0.001904
0.004893
-0.009300
-0.185790
-0.030842
0.056758
-0.023853
-0.153397
0.045456
0.045001
0.031727
-0.159525
0.162656
0.060840
0.082943
-0.046583
0.098462
0.107523
0.070803
0.023168
0.029245
0.073706
0.051679
0.035446
-0.012455
0.054912
0.048560
-0.059377
-0.025940
0.032426
0.057548
-0.007128
-0.011417
0.054937
0.070512
0.051658
0.004703
0.061777
0.039541
0.000600
-0.087703
-0.039269
-0.007908
-0.041291
-0.123146
-0.072804
-0.084981
0.074569
-0.198980
-0.131034
-0.180528
0.058747
